SNNS network definition file V1.4-3D
generated at Tue Nov 23 16:25:13 1999

network name : SNNS_NET
source files :
no. of units : 31
no. of connections : 220
no. of unit types : 0
no. of site types : 0


learning function : Std_Backpropagation
update function   : Topological_Order


unit default section :

act      | bias     | st | subnet | layer | act func     | out func
---------|----------|----|--------|-------|--------------|-------------
 0.00000 |  0.00000 | h  |      0 |     1 | Act_Logistic | Out_Identity 
---------|----------|----|--------|-------|--------------|-------------


unit definition section :

no. | typeName | unitName | act      | bias     | st | position | act func | out func | sites
----|----------|----------|----------|----------|----|----------|----------|----------|-------
  1 |          |          |  0.00000 |  0.00000 | i  |  2, 2, 0 |||
  2 |          |          |  0.00000 |  0.00000 | i  |  2, 3, 0 |||
  3 |          |          |  0.00000 |  0.00000 | i  |  2, 4, 0 |||
  4 |          |          |  0.00000 |  0.00000 | i  |  2, 5, 0 |||
  5 |          |          |  0.00000 |  0.00000 | i  |  2, 6, 0 |||
  6 |          |          |  0.00000 |  0.00000 | i  |  2, 7, 0 |||
  7 |          |          |  0.00000 |  0.00000 | i  |  2, 8, 0 |||
  8 |          |          |  0.00000 |  0.00000 | i  |  2, 9, 0 |||
  9 |          |          |  0.00000 |  0.00000 | i  |  2,10, 0 |||
 10 |          |          |  0.00000 |  0.00000 | i  |  2,11, 0 |||
 11 |          |          |  0.00000 |  0.00000 | i  |  5, 2, 0 |||
 12 |          |          |  0.00000 |  0.00000 | i  |  5, 3, 0 |||
 13 |          |          |  0.00000 |  0.00000 | i  |  5, 4, 0 |||
 14 |          |          |  0.00000 |  0.00000 | i  |  5, 5, 0 |||
 15 |          |          |  0.00000 |  0.00000 | i  |  5, 6, 0 |||
 16 |          |          |  0.00000 |  0.00000 | i  |  5, 7, 0 |||
 17 |          |          |  0.00000 |  0.00000 | i  |  5, 8, 0 |||
 18 |          |          |  0.00000 |  0.00000 | i  |  5, 9, 0 |||
 19 |          |          |  0.00000 |  0.00000 | i  |  5,10, 0 |||
 20 |          |          |  0.00000 |  0.00000 | i  |  5,11, 0 |||
 21 |          |          |  0.00000 |  0.00000 | i  |  5,12, 0 |||
 22 |          |          |  0.00000 |  0.00000 | i  |  5,13, 0 |||
 23 |          |          |  0.00000 |  0.00000 | i  |  5,14, 0 |||
 24 |          |          |  0.00000 |  0.00000 | i  |  5,15, 0 |||
 25 |          |          |  0.00000 |  0.00000 | i  |  5,16, 0 |||
 26 |          |          |  0.00000 |  0.00000 | i  |  5,17, 0 |||
 27 |          |          |  0.00000 |  0.00000 | i  |  5,18, 0 |||
 28 |          |          |  0.00000 |  0.00000 | i  |  5,19, 0 |||
 29 |          |          |  0.00000 |  0.00000 | i  |  5,20, 0 |||
 30 |          |          |  0.00000 |  0.00000 | i  |  5,21, 0 |||
 31 |          |          |  0.00000 |  0.00000 | i  |  8, 2, 0 |||
----|----------|----------|----------|----------|----|----------|----------|----------|-------


connection definition section :

target | site | source:weight
-------|------|---------------------------------------------------------------------------------------------------------------------
    11 |      | 10: 0.00000,  9: 0.00000,  8: 0.00000,  7: 0.00000,  6: 0.00000,  5: 0.00000,  4: 0.00000,  3: 0.00000,  2: 0.00000,
                 1: 0.00000
    12 |      | 10: 0.00000,  9: 0.00000,  8: 0.00000,  7: 0.00000,  6: 0.00000,  5: 0.00000,  4: 0.00000,  3: 0.00000,  2: 0.00000,
                 1: 0.00000
    13 |      | 10: 0.00000,  9: 0.00000,  8: 0.00000,  7: 0.00000,  6: 0.00000,  5: 0.00000,  4: 0.00000,  3: 0.00000,  2: 0.00000,
                 1: 0.00000
    14 |      | 10: 0.00000,  9: 0.00000,  8: 0.00000,  7: 0.00000,  6: 0.00000,  5: 0.00000,  4: 0.00000,  3: 0.00000,  2: 0.00000,
                 1: 0.00000
    15 |      | 10: 0.00000,  9: 0.00000,  8: 0.00000,  7: 0.00000,  6: 0.00000,  5: 0.00000,  4: 0.00000,  3: 0.00000,  2: 0.00000,
                 1: 0.00000
    16 |      | 10: 0.00000,  9: 0.00000,  8: 0.00000,  7: 0.00000,  6: 0.00000,  5: 0.00000,  4: 0.00000,  3: 0.00000,  2: 0.00000,
                 1: 0.00000
    17 |      | 10: 0.00000,  9: 0.00000,  8: 0.00000,  7: 0.00000,  6: 0.00000,  5: 0.00000,  4: 0.00000,  3: 0.00000,  2: 0.00000,
                 1: 0.00000
    18 |      | 10: 0.00000,  9: 0.00000,  8: 0.00000,  7: 0.00000,  6: 0.00000,  5: 0.00000,  4: 0.00000,  3: 0.00000,  2: 0.00000,
                 1: 0.00000
    19 |      | 10: 0.00000,  9: 0.00000,  8: 0.00000,  7: 0.00000,  6: 0.00000,  5: 0.00000,  4: 0.00000,  3: 0.00000,  2: 0.00000,
                 1: 0.00000
    20 |      | 10: 0.00000,  9: 0.00000,  8: 0.00000,  7: 0.00000,  6: 0.00000,  5: 0.00000,  4: 0.00000,  3: 0.00000,  2: 0.00000,
                 1: 0.00000
    21 |      | 10: 0.00000,  9: 0.00000,  8: 0.00000,  7: 0.00000,  6: 0.00000,  5: 0.00000,  4: 0.00000,  3: 0.00000,  2: 0.00000,
                 1: 0.00000
    22 |      | 10: 0.00000,  9: 0.00000,  8: 0.00000,  7: 0.00000,  6: 0.00000,  5: 0.00000,  4: 0.00000,  3: 0.00000,  2: 0.00000,
                 1: 0.00000
    23 |      | 10: 0.00000,  9: 0.00000,  8: 0.00000,  7: 0.00000,  6: 0.00000,  5: 0.00000,  4: 0.00000,  3: 0.00000,  2: 0.00000,
                 1: 0.00000
    24 |      | 10: 0.00000,  9: 0.00000,  8: 0.00000,  7: 0.00000,  6: 0.00000,  5: 0.00000,  4: 0.00000,  3: 0.00000,  2: 0.00000,
                 1: 0.00000
    25 |      | 10: 0.00000,  9: 0.00000,  8: 0.00000,  7: 0.00000,  6: 0.00000,  5: 0.00000,  4: 0.00000,  3: 0.00000,  2: 0.00000,
                 1: 0.00000
    26 |      | 10: 0.00000,  9: 0.00000,  8: 0.00000,  7: 0.00000,  6: 0.00000,  5: 0.00000,  4: 0.00000,  3: 0.00000,  2: 0.00000,
                 1: 0.00000
    27 |      | 10: 0.00000,  9: 0.00000,  8: 0.00000,  7: 0.00000,  6: 0.00000,  5: 0.00000,  4: 0.00000,  3: 0.00000,  2: 0.00000,
                 1: 0.00000
    28 |      | 10: 0.00000,  9: 0.00000,  8: 0.00000,  7: 0.00000,  6: 0.00000,  5: 0.00000,  4: 0.00000,  3: 0.00000,  2: 0.00000,
                 1: 0.00000
    29 |      | 10: 0.00000,  9: 0.00000,  8: 0.00000,  7: 0.00000,  6: 0.00000,  5: 0.00000,  4: 0.00000,  3: 0.00000,  2: 0.00000,
                 1: 0.00000
    30 |      | 10: 0.00000,  9: 0.00000,  8: 0.00000,  7: 0.00000,  6: 0.00000,  5: 0.00000,  4: 0.00000,  3: 0.00000,  2: 0.00000,
                 1: 0.00000
    31 |      | 30: 0.00000, 29: 0.00000, 28: 0.00000, 27: 0.00000, 26: 0.00000, 25: 0.00000, 24: 0.00000, 23: 0.00000, 22: 0.00000,
                21: 0.00000, 20: 0.00000, 19: 0.00000, 18: 0.00000, 17: 0.00000, 16: 0.00000, 15: 0.00000, 14: 0.00000, 13: 0.00000,
                12: 0.00000, 11: 0.00000
-------|------|---------------------------------------------------------------------------------------------------------------------
