SNNS network definition file V1.4-3D
generated at Thu Dec  9 00:20:08 1999

network name : bignet.net
source files :
no. of units : 15
no. of connections : 50
no. of unit types : 0
no. of site types : 0


learning function : Std_Backpropagation
update function   : Topological_Order


unit default section :

act      | bias     | st | subnet | layer | act func     | out func
---------|----------|----|--------|-------|--------------|-------------
 0.00000 |  0.00000 | h  |      0 |     1 | Act_Logistic | Out_Identity 
---------|----------|----|--------|-------|--------------|-------------


unit definition section :

no. | typeName | unitName | act      | bias     | st | position | act func | out func | sites
----|----------|----------|----------|----------|----|----------|----------|----------|-------
  1 |          |          |  0.00000 |  0.65828 | i  |  0, 1, 0 |||
  2 |          |          |  0.00000 |  0.10188 | i  |  0, 2, 0 |||
  3 |          |          |  0.00000 | -0.60792 | i  |  0, 3, 0 |||
  4 |          |          |  0.00000 | -0.35072 | i  |  0, 4, 0 |||
  5 |          |          |  0.57852 |  0.31672 | h  | 10, 1, 0 |||
  6 |          |          |  0.37312 | -0.51886 | h  | 10, 2, 0 |||
  7 |          |          |  0.27494 | -0.96968 | h  | 10, 3, 0 |||
  8 |          |          |  0.29485 | -0.87194 | h  | 10, 4, 0 |||
  9 |          |          |  0.63026 |  0.53335 | h  | 10, 5, 0 |||
 10 |          |          |  0.29412 | -0.87547 | h  | 10, 6, 0 |||
 11 |          |          |  0.38089 | -0.48577 | h  | 10, 7, 0 |||
 12 |          |          |  0.30200 | -0.83780 | h  | 10, 8, 0 |||
 13 |          |          |  0.43175 | -0.27470 | h  | 10, 9, 0 |||
 14 |          |          |  0.30909 | -0.80438 | h  | 10,10, 0 |||
 15 |          |          |  0.83596 |  0.63069 | o  | 20, 1, 0 |||
----|----------|----------|----------|----------|----|----------|----------|----------|-------


connection definition section :

target | site | source:weight
-------|------|---------------------------------------------------------------------------------------------------------------------
     5 |      |  1:-0.32538,  2: 0.76381,  3: 0.07257,  4: 0.34951
     6 |      |  1:-0.70838,  2: 0.42552,  3:-0.82486,  4:-0.69489
     7 |      |  1: 0.93577,  2: 0.37043,  3:-0.15402,  4: 0.45641
     8 |      |  1:-0.90107,  2:-0.72745,  3: 0.39855,  4: 0.51259
     9 |      |  1: 0.87824,  2:-0.39320,  3:-0.18664,  4: 0.33808
    10 |      |  1: 0.12180,  2:-0.29651,  3:-0.92400,  4:-0.43885
    11 |      |  1:-0.73765,  2:-0.20168,  3:-0.25954,  4: 0.61072
    12 |      |  1: 0.27754,  2:-0.80967,  3: 0.29038,  4: 0.60737
    13 |      |  1: 0.45147,  2:-0.47429,  3:-0.50347,  4: 0.82384
    14 |      |  1: 0.21279,  2:-0.40841,  3:-0.90215,  4:-0.48353
    15 |      |  5: 0.96648,  6: 0.82370,  7:-0.20173,  8: 0.62701,  9:-0.39311, 10:-0.83400, 11: 0.59441, 12: 0.60004, 13: 0.72962,
                14:-0.73661
-------|------|---------------------------------------------------------------------------------------------------------------------
